digraph Tree {
node [shape=box, style="filled, rounded", color="black", fontname=helvetica] ;
edge [fontname=helvetica] ;
0 [label=<Space &le; 0.021<br/>gini = 0.792<br/>samples = 108711<br/>value = [3077, 13097, 25105, 28370, 26617, 11555, 616, 274]<br/>class = (30, 40]>, fillcolor="#39e5ac05"] ;
1 [label=<Game &le; 0.03<br/>gini = 0.783<br/>samples = 75453<br/>value = [2831, 11456, 20808, 20704, 14727, 4456, 240, 231]<br/>class = (20, 23]>, fillcolor="#47e53900"] ;
0 -> 1 [labeldistance=2.5, labelangle=45, headlabel="True"] ;
2 [label=<Sci-Fi &le; 0.163<br/>gini = 0.768<br/>samples = 44466<br/>value = [873, 4267, 11165, 13734, 10710, 3454, 186, 77]<br/>class = (30, 40]>, fillcolor="#39e5ac14"] ;
1 -> 2 ;
3 [label=<School &le; 0.245<br/>gini = 0.766<br/>samples = 25176<br/>value = [702, 3065, 7396, 7689, 4785, 1402, 83, 54]<br/>class = (30, 40]>, fillcolor="#39e5ac04"] ;
2 -> 3 ;
4 [label=<Romance &le; 0.343<br/>gini = 0.755<br/>samples = 10927<br/>value = [168, 861, 2787, 3673, 2556, 833, 38, 11]<br/>class = (30, 40]>, fillcolor="#39e5ac1c"] ;
3 -> 4 ;
5 [label=<gini = 0.765<br/>samples = 6215<br/>value = [143, 688, 1739, 1924, 1305, 382, 24, 10]<br/>class = (30, 40]>, fillcolor="#39e5ac0b"] ;
4 -> 5 ;
6 [label=<gini = 0.732<br/>samples = 4712<br/>value = [25, 173, 1048, 1749, 1251, 451, 14, 1]<br/>class = (30, 40]>, fillcolor="#39e5ac25"] ;
4 -> 6 ;
7 [label=<Supernatural &le; 0.253<br/>gini = 0.765<br/>samples = 14249<br/>value = [534, 2204, 4609, 4016, 2229, 569, 45, 43]<br/>class = (20, 23]>, fillcolor="#47e5390f"] ;
3 -> 7 ;
8 [label=<gini = 0.774<br/>samples = 6799<br/>value = [230, 902, 1908, 2027, 1305, 376, 28, 23]<br/>class = (30, 40]>, fillcolor="#39e5ac06"] ;
7 -> 8 ;
9 [label=<gini = 0.749<br/>samples = 7450<br/>value = [304, 1302, 2701, 1989, 924, 193, 17, 20]<br/>class = (20, 23]>, fillcolor="#47e53921"] ;
7 -> 9 ;
10 [label=<School &le; 0.211<br/>gini = 0.754<br/>samples = 19290<br/>value = [171, 1202, 3769, 6045, 5925, 2052, 103, 23]<br/>class = (30, 40]>, fillcolor="#39e5ac02"] ;
2 -> 10 ;
11 [label=<Mecha &le; 0.048<br/>gini = 0.738<br/>samples = 8833<br/>value = [61, 374, 1275, 2680, 3174, 1204, 52, 13]<br/>class = (23, 26]>, fillcolor="#399de514"] ;
10 -> 11 ;
12 [label=<gini = 0.748<br/>samples = 3232<br/>value = [28, 208, 608, 1074, 986, 301, 18, 9]<br/>class = (30, 40]>, fillcolor="#39e5ac0a"] ;
11 -> 12 ;
13 [label=<gini = 0.724<br/>samples = 5601<br/>value = [33, 166, 667, 1606, 2188, 903, 34, 4]<br/>class = (23, 26]>, fillcolor="#399de525"] ;
11 -> 13 ;
14 [label=<Supernatural &le; 0.245<br/>gini = 0.757<br/>samples = 10457<br/>value = [110, 828, 2494, 3365, 2751, 848, 51, 10]<br/>class = (30, 40]>, fillcolor="#39e5ac14"] ;
10 -> 14 ;
15 [label=<gini = 0.75<br/>samples = 4205<br/>value = [38, 237, 693, 1320, 1374, 508, 32, 3]<br/>class = (23, 26]>, fillcolor="#399de505"] ;
14 -> 15 ;
16 [label=<gini = 0.749<br/>samples = 6252<br/>value = [72, 591, 1801, 2045, 1377, 340, 19, 7]<br/>class = (30, 40]>, fillcolor="#39e5ac0e"] ;
14 -> 16 ;
17 [label=<School &le; 0.249<br/>gini = 0.777<br/>samples = 30987<br/>value = [1958, 7189, 9643, 6970, 4017, 1002, 54, 154]<br/>class = (20, 23]>, fillcolor="#47e5391a"] ;
1 -> 17 ;
18 [label=<Supernatural &le; 0.281<br/>gini = 0.78<br/>samples = 10970<br/>value = [451, 1710, 3047, 3055, 2113, 534, 24, 36]<br/>class = (30, 40]>, fillcolor="#39e5ac00"] ;
17 -> 18 ;
19 [label=<Shoujo &le; 0.025<br/>gini = 0.773<br/>samples = 5066<br/>value = [146, 580, 1222, 1530, 1235, 323, 16, 14]<br/>class = (30, 40]>, fillcolor="#39e5ac14"] ;
18 -> 19 ;
20 [label=<gini = 0.783<br/>samples = 2187<br/>value = [87, 330, 622, 569, 441, 122, 9, 7]<br/>class = (20, 23]>, fillcolor="#47e53908"] ;
19 -> 20 ;
21 [label=<gini = 0.756<br/>samples = 2879<br/>value = [59, 250, 600, 961, 794, 201, 7, 7]<br/>class = (30, 40]>, fillcolor="#39e5ac14"] ;
19 -> 21 ;
22 [label=<Historical &le; 0.047<br/>gini = 0.775<br/>samples = 5904<br/>value = [305, 1130, 1825, 1525, 878, 211, 8, 22]<br/>class = (20, 23]>, fillcolor="#47e53911"] ;
18 -> 22 ;
23 [label=<gini = 0.771<br/>samples = 2770<br/>value = [199, 658, 892, 622, 310, 71, 4, 14]<br/>class = (20, 23]>, fillcolor="#47e5391c"] ;
22 -> 23 ;
24 [label=<gini = 0.77<br/>samples = 3134<br/>value = [106, 472, 933, 903, 568, 140, 4, 8]<br/>class = (20, 23]>, fillcolor="#47e53903"] ;
22 -> 24 ;
25 [label=<Samurai &le; 0.0<br/>gini = 0.763<br/>samples = 20017<br/>value = [1507, 5479, 6596, 3915, 1904, 468, 30, 118]<br/>class = (20, 23]>, fillcolor="#47e53914"] ;
17 -> 25 ;
26 [label=<Sci-Fi &le; 0.141<br/>gini = 0.756<br/>samples = 10180<br/>value = [1053, 3161, 3295, 1674, 721, 164, 16, 96]<br/>class = (20, 23]>, fillcolor="#47e53905"] ;
25 -> 26 ;
27 [label=<gini = 0.753<br/>samples = 5455<br/>value = [741, 1805, 1685, 781, 285, 73, 8, 77]<br/>class = (17, 20]>, fillcolor="#c8e53908"] ;
26 -> 27 ;
28 [label=<gini = 0.753<br/>samples = 4725<br/>value = [312, 1356, 1610, 893, 436, 91, 8, 19]<br/>class = (20, 23]>, fillcolor="#47e53913"] ;
26 -> 28 ;
29 [label=<Supernatural &le; 0.264<br/>gini = 0.762<br/>samples = 9837<br/>value = [454, 2318, 3301, 2241, 1183, 304, 14, 22]<br/>class = (20, 23]>, fillcolor="#47e53921"] ;
25 -> 29 ;
30 [label=<gini = 0.775<br/>samples = 4589<br/>value = [176, 866, 1419, 1168, 733, 209, 8, 10]<br/>class = (20, 23]>, fillcolor="#47e53913"] ;
29 -> 30 ;
31 [label=<gini = 0.743<br/>samples = 5248<br/>value = [278, 1452, 1882, 1073, 450, 95, 6, 12]<br/>class = (20, 23]>, fillcolor="#47e5391d"] ;
29 -> 31 ;
32 [label=<Sci-Fi &le; 0.274<br/>gini = 0.754<br/>samples = 33258<br/>value = [246, 1641, 4297, 7666, 11890, 7099, 376, 43]<br/>class = (23, 26]>, fillcolor="#399de52a"] ;
0 -> 32 [labeldistance=2.5, labelangle=-45, headlabel="False"] ;
33 [label=<Game &le; 0.028<br/>gini = 0.765<br/>samples = 18332<br/>value = [201, 1271, 3161, 4899, 6036, 2619, 121, 24]<br/>class = (23, 26]>, fillcolor="#399de516"] ;
32 -> 33 ;
34 [label=<MartialArts &le; 0.013<br/>gini = 0.739<br/>samples = 10672<br/>value = [51, 403, 1401, 2841, 4001, 1881, 82, 12]<br/>class = (23, 26]>, fillcolor="#399de526"] ;
33 -> 34 ;
35 [label=<Drama &le; 0.391<br/>gini = 0.767<br/>samples = 2416<br/>value = [24, 176, 473, 729, 695, 299, 15, 5]<br/>class = (30, 40]>, fillcolor="#39e5ac05"] ;
34 -> 35 ;
36 [label=<gini = 0.773<br/>samples = 1397<br/>value = [16, 123, 339, 431, 324, 150, 10, 4]<br/>class = (30, 40]>, fillcolor="#39e5ac16"] ;
35 -> 36 ;
37 [label=<gini = 0.74<br/>samples = 1019<br/>value = [8, 53, 134, 298, 371, 149, 5, 1]<br/>class = (23, 26]>, fillcolor="#399de51a"] ;
35 -> 37 ;
38 [label=<Supernatural &le; 0.253<br/>gini = 0.724<br/>samples = 8256<br/>value = [27, 227, 928, 2112, 3306, 1582, 67, 7]<br/>class = (23, 26]>, fillcolor="#399de532"] ;
34 -> 38 ;
39 [label=<gini = 0.706<br/>samples = 4899<br/>value = [9, 88, 397, 1151, 2062, 1146, 44, 2]<br/>class = (23, 26]>, fillcolor="#399de53e"] ;
38 -> 39 ;
40 [label=<gini = 0.737<br/>samples = 3357<br/>value = [18, 139, 531, 961, 1244, 436, 23, 5]<br/>class = (23, 26]>, fillcolor="#399de51e"] ;
38 -> 40 ;
41 [label=<Supernatural &le; 0.256<br/>gini = 0.782<br/>samples = 7660<br/>value = [150, 868, 1760, 2058, 2035, 738, 39, 12]<br/>class = (30, 40]>, fillcolor="#39e5ac01"] ;
33 -> 41 ;
42 [label=<School &le; 0.293<br/>gini = 0.771<br/>samples = 3940<br/>value = [47, 305, 756, 1056, 1231, 514, 28, 3]<br/>class = (23, 26]>, fillcolor="#399de50f"] ;
41 -> 42 ;
43 [label=<gini = 0.759<br/>samples = 2895<br/>value = [27, 186, 482, 768, 998, 412, 22, 0]<br/>class = (23, 26]>, fillcolor="#399de51c"] ;
42 -> 43 ;
44 [label=<gini = 0.783<br/>samples = 1045<br/>value = [20, 119, 274, 288, 233, 102, 6, 3]<br/>class = (30, 40]>, fillcolor="#39e5ac05"] ;
42 -> 44 ;
45 [label=<Historical &le; 0.028<br/>gini = 0.781<br/>samples = 3720<br/>value = [103, 563, 1004, 1002, 804, 224, 11, 9]<br/>class = (20, 23]>, fillcolor="#47e53900"] ;
41 -> 45 ;
46 [label=<gini = 0.77<br/>samples = 870<br/>value = [48, 208, 286, 185, 110, 25, 2, 6]<br/>class = (20, 23]>, fillcolor="#47e5391e"] ;
45 -> 46 ;
47 [label=<gini = 0.774<br/>samples = 2850<br/>value = [55, 355, 718, 817, 694, 199, 9, 3]<br/>class = (30, 40]>, fillcolor="#39e5ac0c"] ;
45 -> 47 ;
48 [label=<Thriller &le; 0.042<br/>gini = 0.715<br/>samples = 14926<br/>value = [45, 370, 1136, 2767, 5854, 4480, 255, 19]<br/>class = (23, 26]>, fillcolor="#399de522"] ;
32 -> 48 ;
49 [label=<Police &le; 0.027<br/>gini = 0.691<br/>samples = 8569<br/>value = [19, 150, 440, 1330, 3293, 3137, 190, 10]<br/>class = (23, 26]>, fillcolor="#399de507"] ;
48 -> 49 ;
50 [label=<Kids &le; 0.016<br/>gini = 0.711<br/>samples = 3873<br/>value = [14, 86, 272, 805, 1568, 1070, 52, 6]<br/>class = (23, 26]>, fillcolor="#399de52d"] ;
49 -> 50 ;
51 [label=<gini = 0.717<br/>samples = 2536<br/>value = [8, 62, 190, 465, 938, 824, 44, 5]<br/>class = (23, 26]>, fillcolor="#399de511"] ;
50 -> 51 ;
52 [label=<gini = 0.675<br/>samples = 1337<br/>value = [6, 24, 82, 340, 630, 246, 8, 1]<br/>class = (23, 26]>, fillcolor="#399de54a"] ;
50 -> 52 ;
53 [label=<Kids &le; 0.025<br/>gini = 0.656<br/>samples = 4696<br/>value = [5, 64, 168, 525, 1725, 2067, 138, 4]<br/>class = (14, 17]>, fillcolor="#5639e51d"] ;
49 -> 53 ;
54 [label=<gini = 0.638<br/>samples = 3468<br/>value = [3, 40, 118, 326, 1156, 1696, 127, 2]<br/>class = (14, 17]>, fillcolor="#5639e53c"] ;
53 -> 54 ;
55 [label=<gini = 0.666<br/>samples = 1228<br/>value = [2, 24, 50, 199, 569, 371, 11, 2]<br/>class = (23, 26]>, fillcolor="#399de53b"] ;
53 -> 55 ;
56 [label=<Game &le; 0.028<br/>gini = 0.729<br/>samples = 6357<br/>value = [26, 220, 696, 1437, 2561, 1343, 65, 9]<br/>class = (23, 26]>, fillcolor="#399de53a"] ;
48 -> 56 ;
57 [label=<Samurai &le; 0.01<br/>gini = 0.709<br/>samples = 4494<br/>value = [12, 105, 376, 945, 1912, 1080, 58, 6]<br/>class = (23, 26]>, fillcolor="#399de53e"] ;
56 -> 57 ;
58 [label=<gini = 0.745<br/>samples = 1373<br/>value = [4, 46, 180, 356, 495, 271, 19, 2]<br/>class = (23, 26]>, fillcolor="#399de523"] ;
57 -> 58 ;
59 [label=<gini = 0.687<br/>samples = 3121<br/>value = [8, 59, 196, 589, 1417, 809, 39, 4]<br/>class = (23, 26]>, fillcolor="#399de543"] ;
57 -> 59 ;
60 [label=<MartialArts &le; 0.011<br/>gini = 0.756<br/>samples = 1863<br/>value = [14, 115, 320, 492, 649, 263, 7, 3]<br/>class = (23, 26]>, fillcolor="#399de51d"] ;
56 -> 60 ;
61 [label=<gini = 0.779<br/>samples = 485<br/>value = [7, 55, 126, 132, 115, 49, 1, 0]<br/>class = (30, 40]>, fillcolor="#39e5ac04"] ;
60 -> 61 ;
62 [label=<gini = 0.736<br/>samples = 1378<br/>value = [7, 60, 194, 360, 534, 214, 6, 3]<br/>class = (23, 26]>, fillcolor="#399de52c"] ;
60 -> 62 ;
}