digraph Tree {
node [shape=box, style="filled, rounded", color="black", fontname=helvetica] ;
edge [fontname=helvetica] ;
0 [label=<Cars &le; 0.006<br/>gini = 0.792<br/>samples = 108711<br/>value = [3077, 13097, 25105, 28370, 26617, 11555, 616, 274]<br/>class = (30, 40]>, fillcolor="#39e5ac05"] ;
1 [label=<Magic &le; 0.019<br/>gini = 0.792<br/>samples = 108705<br/>value = [3077, 13097, 25105, 28370, 26611, 11555, 616, 274]<br/>class = (30, 40]>, fillcolor="#39e5ac05"] ;
0 -> 1 [labeldistance=2.5, labelangle=45, headlabel="True"] ;
2 [label=<Sci-Fi &le; 0.026<br/>gini = 0.792<br/>samples = 108686<br/>value = [3077, 13092, 25104, 28368, 26602, 11553, 616, 274]<br/>class = (30, 40]>, fillcolor="#39e5ac05"] ;
1 -> 2 ;
3 [label=<Space &le; 0.002<br/>gini = 0.792<br/>samples = 108675<br/>value = [3076, 13092, 25104, 28366, 26600, 11547, 616, 274]<br/>class = (30, 40]>, fillcolor="#39e5ac05"] ;
2 -> 3 ;
4 [label=<Shounen &le; 0.02<br/>gini = 0.792<br/>samples = 108662<br/>value = [3076, 13092, 25096, 28362, 26600, 11546, 616, 274]<br/>class = (30, 40]>, fillcolor="#39e5ac05"] ;
3 -> 4 ;
5 [label=<gini = 0.792<br/>samples = 108652<br/>value = [3075, 13092, 25096, 28355, 26599, 11545, 616, 274]<br/>class = (30, 40]>, fillcolor="#39e5ac05"] ;
4 -> 5 ;
6 [label=<gini = 0.48<br/>samples = 10<br/>value = [1, 0, 0, 7, 1, 1, 0, 0]<br/>class = (30, 40]>, fillcolor="#39e5acaa"] ;
4 -> 6 ;
7 [label=<Game &le; 0.014<br/>gini = 0.521<br/>samples = 13<br/>value = [0, 0, 8, 4, 0, 1, 0, 0]<br/>class = (20, 23]>, fillcolor="#47e53971"] ;
3 -> 7 ;
8 [label=<gini = 0.43<br/>samples = 11<br/>value = [0, 0, 8, 2, 0, 1, 0, 0]<br/>class = (20, 23]>, fillcolor="#47e539aa"] ;
7 -> 8 ;
9 [label=<gini = 0.0<br/>samples = 2<br/>value = [0, 0, 0, 2, 0, 0, 0, 0]<br/>class = (30, 40]>, fillcolor="#39e5acff"] ;
7 -> 9 ;
10 [label=<Samurai &le; 0.005<br/>gini = 0.628<br/>samples = 11<br/>value = [1, 0, 0, 2, 2, 6, 0, 0]<br/>class = (14, 17]>, fillcolor="#5639e571"] ;
2 -> 10 ;
11 [label=<Police &le; 0.004<br/>gini = 0.494<br/>samples = 9<br/>value = [1, 0, 0, 2, 0, 6, 0, 0]<br/>class = (14, 17]>, fillcolor="#5639e592"] ;
10 -> 11 ;
12 [label=<gini = 0.625<br/>samples = 4<br/>value = [1, 0, 0, 2, 0, 1, 0, 0]<br/>class = (30, 40]>, fillcolor="#39e5ac55"] ;
11 -> 12 ;
13 [label=<gini = 0.0<br/>samples = 5<br/>value = [0, 0, 0, 0, 0, 5, 0, 0]<br/>class = (14, 17]>, fillcolor="#5639e5ff"] ;
11 -> 13 ;
14 [label=<gini = 0.0<br/>samples = 2<br/>value = [0, 0, 0, 0, 2, 0, 0, 0]<br/>class = (23, 26]>, fillcolor="#399de5ff"] ;
10 -> 14 ;
15 [label=<Hentai &le; 0.015<br/>gini = 0.681<br/>samples = 19<br/>value = [0, 5, 1, 2, 9, 2, 0, 0]<br/>class = (23, 26]>, fillcolor="#399de549"] ;
1 -> 15 ;
16 [label=<Police &le; 0.004<br/>gini = 0.462<br/>samples = 13<br/>value = [0, 3, 0, 0, 9, 1, 0, 0]<br/>class = (23, 26]>, fillcolor="#399de599"] ;
15 -> 16 ;
17 [label=<Music &le; 0.025<br/>gini = 0.198<br/>samples = 9<br/>value = [0, 0, 0, 0, 8, 1, 0, 0]<br/>class = (23, 26]>, fillcolor="#399de5df"] ;
16 -> 17 ;
18 [label=<gini = 0.0<br/>samples = 8<br/>value = [0, 0, 0, 0, 8, 0, 0, 0]<br/>class = (23, 26]>, fillcolor="#399de5ff"] ;
17 -> 18 ;
19 [label=<gini = 0.0<br/>samples = 1<br/>value = [0, 0, 0, 0, 0, 1, 0, 0]<br/>class = (14, 17]>, fillcolor="#5639e5ff"] ;
17 -> 19 ;
20 [label=<Shoujo &le; 0.054<br/>gini = 0.375<br/>samples = 4<br/>value = [0, 3, 0, 0, 1, 0, 0, 0]<br/>class = (17, 20]>, fillcolor="#c8e539aa"] ;
16 -> 20 ;
21 [label=<gini = 0.0<br/>samples = 3<br/>value = [0, 3, 0, 0, 0, 0, 0, 0]<br/>class = (17, 20]>, fillcolor="#c8e539ff"] ;
20 -> 21 ;
22 [label=<gini = 0.0<br/>samples = 1<br/>value = [0, 0, 0, 0, 1, 0, 0, 0]<br/>class = (23, 26]>, fillcolor="#399de5ff"] ;
20 -> 22 ;
23 [label=<Military &le; 0.003<br/>gini = 0.722<br/>samples = 6<br/>value = [0, 2, 1, 2, 0, 1, 0, 0]<br/>class = (17, 20]>, fillcolor="#c8e53900"] ;
15 -> 23 ;
24 [label=<gini = 0.0<br/>samples = 2<br/>value = [0, 2, 0, 0, 0, 0, 0, 0]<br/>class = (17, 20]>, fillcolor="#c8e539ff"] ;
23 -> 24 ;
25 [label=<Ecchi &le; 0.02<br/>gini = 0.625<br/>samples = 4<br/>value = [0, 0, 1, 2, 0, 1, 0, 0]<br/>class = (30, 40]>, fillcolor="#39e5ac55"] ;
23 -> 25 ;
26 [label=<gini = 0.5<br/>samples = 2<br/>value = [0, 0, 1, 0, 0, 1, 0, 0]<br/>class = (20, 23]>, fillcolor="#47e53900"] ;
25 -> 26 ;
27 [label=<gini = 0.0<br/>samples = 2<br/>value = [0, 0, 0, 2, 0, 0, 0, 0]<br/>class = (30, 40]>, fillcolor="#39e5acff"] ;
25 -> 27 ;
28 [label=<gini = 0.0<br/>samples = 6<br/>value = [0, 0, 0, 0, 6, 0, 0, 0]<br/>class = (23, 26]>, fillcolor="#399de5ff"] ;
0 -> 28 [labeldistance=2.5, labelangle=-45, headlabel="False"] ;
}