digraph Tree {
node [shape=box, style="filled, rounded", color="black", fontname=helvetica] ;
edge [fontname=helvetica] ;
0 [label=<Shoujo &le; 0.017<br/>gini = 0.457<br/>samples = 108711<br/>value = [37330, 70880, 501]<br/>class = Male>, fillcolor="#39e58178"] ;
1 [label=<ShounenAi &le; 0.002<br/>gini = 0.233<br/>samples = 75950<br/>value = [9816, 65785, 349]<br/>class = Male>, fillcolor="#39e581d8"] ;
0 -> 1 [labeldistance=2.5, labelangle=45, headlabel="True"] ;
2 [label=<Ecchi &le; 0.001<br/>gini = 0.194<br/>samples = 72258<br/>value = [7560, 64410, 288]<br/>class = Male>, fillcolor="#39e581e0"] ;
1 -> 2 ;
3 [label=<Sci-Fi &le; 0.013<br/>gini = 0.449<br/>samples = 7210<br/>value = [2408, 4781, 21]<br/>class = Male>, fillcolor="#39e5817e"] ;
2 -> 3 ;
4 [label=<gini = 0.499<br/>samples = 2494<br/>value = [1149, 1340, 5]<br/>class = Male>, fillcolor="#39e58124"] ;
3 -> 4 ;
5 [label=<gini = 0.396<br/>samples = 4716<br/>value = [1259, 3441, 16]<br/>class = Male>, fillcolor="#39e581a1"] ;
3 -> 5 ;
6 [label=<Shoujo &le; 0.012<br/>gini = 0.153<br/>samples = 65048<br/>value = [5152, 59629, 267]<br/>class = Male>, fillcolor="#39e581e8"] ;
2 -> 6 ;
7 [label=<gini = 0.121<br/>samples = 57809<br/>value = [3505, 54077, 227]<br/>class = Male>, fillcolor="#39e581ed"] ;
6 -> 7 ;
8 [label=<gini = 0.36<br/>samples = 7239<br/>value = [1647, 5552, 40]<br/>class = Male>, fillcolor="#39e581b2"] ;
6 -> 8 ;
9 [label=<ShounenAi &le; 0.004<br/>gini = 0.488<br/>samples = 3692<br/>value = [2256, 1375, 61]<br/>class = Female>, fillcolor="#e5813961"] ;
1 -> 9 ;
10 [label=<Shoujo &le; 0.011<br/>gini = 0.506<br/>samples = 1279<br/>value = [545, 715, 19]<br/>class = Male>, fillcolor="#39e5813b"] ;
9 -> 10 ;
11 [label=<gini = 0.417<br/>samples = 622<br/>value = [168, 444, 10]<br/>class = Male>, fillcolor="#39e5819b"] ;
10 -> 11 ;
12 [label=<gini = 0.5<br/>samples = 657<br/>value = [377, 271, 9]<br/>class = Female>, fillcolor="#e5813946"] ;
10 -> 12 ;
13 [label=<Historical &le; 0.014<br/>gini = 0.422<br/>samples = 2413<br/>value = [1711, 660, 42]<br/>class = Female>, fillcolor="#e5813999"] ;
9 -> 13 ;
14 [label=<gini = 0.483<br/>samples = 1246<br/>value = [776, 447, 23]<br/>class = Female>, fillcolor="#e5813969"] ;
13 -> 14 ;
15 [label=<gini = 0.325<br/>samples = 1167<br/>value = [935, 213, 19]<br/>class = Female>, fillcolor="#e58139c1"] ;
13 -> 15 ;
16 [label=<Shoujo &le; 0.024<br/>gini = 0.27<br/>samples = 32761<br/>value = [27514, 5095, 152]<br/>class = Female>, fillcolor="#e58139cf"] ;
0 -> 16 [labeldistance=2.5, labelangle=-45, headlabel="False"] ;
17 [label=<ShounenAi &le; 0.001<br/>gini = 0.465<br/>samples = 8301<br/>value = [5323, 2922, 56]<br/>class = Female>, fillcolor="#e5813972"] ;
16 -> 17 ;
18 [label=<Ecchi &le; 0.024<br/>gini = 0.504<br/>samples = 4783<br/>value = [2358, 2405, 20]<br/>class = Male>, fillcolor="#39e58105"] ;
17 -> 18 ;
19 [label=<gini = 0.49<br/>samples = 3279<br/>value = [1917, 1346, 16]<br/>class = Female>, fillcolor="#e581394b"] ;
18 -> 19 ;
20 [label=<gini = 0.418<br/>samples = 1504<br/>value = [441, 1059, 4]<br/>class = Male>, fillcolor="#39e58194"] ;
18 -> 20 ;
21 [label=<Supernatural &le; 0.05<br/>gini = 0.268<br/>samples = 3518<br/>value = [2965, 517, 36]<br/>class = Female>, fillcolor="#e58139d0"] ;
17 -> 21 ;
22 [label=<gini = 0.403<br/>samples = 875<br/>value = [634, 234, 7]<br/>class = Female>, fillcolor="#e581399f"] ;
21 -> 22 ;
23 [label=<gini = 0.211<br/>samples = 2643<br/>value = [2331, 283, 29]<br/>class = Female>, fillcolor="#e58139dd"] ;
21 -> 23 ;
24 [label=<Josei &le; 0.002<br/>gini = 0.169<br/>samples = 24460<br/>value = [22191, 2173, 96]<br/>class = Female>, fillcolor="#e58139e5"] ;
16 -> 24 ;
25 [label=<Shoujo &le; 0.035<br/>gini = 0.262<br/>samples = 8703<br/>value = [7357, 1319, 27]<br/>class = Female>, fillcolor="#e58139d1"] ;
24 -> 25 ;
26 [label=<gini = 0.395<br/>samples = 2750<br/>value = [2015, 720, 15]<br/>class = Female>, fillcolor="#e58139a3"] ;
25 -> 26 ;
27 [label=<gini = 0.185<br/>samples = 5953<br/>value = [5342, 599, 12]<br/>class = Female>, fillcolor="#e58139e2"] ;
25 -> 27 ;
28 [label=<Shoujo &le; 0.039<br/>gini = 0.111<br/>samples = 15757<br/>value = [14834, 854, 69]<br/>class = Female>, fillcolor="#e58139ef"] ;
24 -> 28 ;
29 [label=<gini = 0.163<br/>samples = 8090<br/>value = [7369, 671, 50]<br/>class = Female>, fillcolor="#e58139e6"] ;
28 -> 29 ;
30 [label=<gini = 0.051<br/>samples = 7667<br/>value = [7465, 183, 19]<br/>class = Female>, fillcolor="#e58139f8"] ;
28 -> 30 ;
}